digraph Tree {
node [shape=box, style="filled, rounded", color="black", fontname=helvetica] ;
edge [fontname=helvetica] ;
0 [label="petal width (cm) <= 0.75\ngini = 0.66\nsamples = 97\nvalue = [43, 59, 48]\nclass = versicolor", fillcolor="#eafcf1"] ;
1 [label="gini = 0.0\nsamples = 29\nvalue = [43, 0, 0]\nclass = setosa", fillcolor="#e58139"] ;
0 -> 1 [labeldistance=2.5, labelangle=45, headlabel="True"] ;
2 [label="petal width (cm) <= 1.75\ngini = 0.49\nsamples = 68\nvalue = [0, 59, 48]\nclass = versicolor", fillcolor="#dafae8"] ;
0 -> 2 [labeldistance=2.5, labelangle=-45, headlabel="False"] ;
3 [label="petal length (cm) <= 5.05\ngini = 0.09\nsamples = 38\nvalue = [0, 59, 3]\nclass = versicolor", fillcolor="#43e687"] ;
2 -> 3 ;
4 [label="petal width (cm) <= 1.65\ngini = 0.03\nsamples = 36\nvalue = [0, 59, 1]\nclass = versicolor", fillcolor="#3ce583"] ;
3 -> 4 ;
5 [label="gini = 0.0\nsamples = 34\nvalue = [0, 57, 0]\nclass = versicolor", fillcolor="#39e581"] ;
4 -> 5 ;
6 [label="petal length (cm) <= 4.75\ngini = 0.44\nsamples = 2\nvalue = [0, 2, 1]\nclass = versicolor", fillcolor="#9cf2c0"] ;
4 -> 6 ;
7 [label="gini = 0.0\nsamples = 1\nvalue = [0, 0, 1]\nclass = virginica", fillcolor="#8139e5"] ;
6 -> 7 ;
8 [label="gini = 0.0\nsamples = 1\nvalue = [0, 2, 0]\nclass = versicolor", fillcolor="#39e581"] ;
6 -> 8 ;
9 [label="gini = 0.0\nsamples = 2\nvalue = [0, 0, 2]\nclass = virginica", fillcolor="#8139e5"] ;
3 -> 9 ;
10 [label="gini = 0.0\nsamples = 30\nvalue = [0, 0, 45]\nclass = virginica", fillcolor="#8139e5"] ;
2 -> 10 ;
}